<?xml version="1.0"?>
<opencv_storage>
<cascade>
  <stageType>BOOST</stageType>
  <featureType>LBP</featureType>
  <height>24</height>
  <width>24</width>
  <stageParams>
    <boostType>GAB</boostType>
    <minHitRate>9.9500000476837158e-01</minHitRate>
    <maxFalseAlarm>5.0000000000000000e-01</maxFalseAlarm>
    <weightTrimRate>9.4999999999999996e-01</weightTrimRate>
    <maxDepth>1</maxDepth>
    <maxWeakCount>100</maxWeakCount></stageParams>
  <featureParams>
    <maxCatCount>256</maxCatCount>
    <featSize>1</featSize></featureParams>
  <stageNum>9</stageNum>
  <stages>
    <!-- stage 0 -->
    <_>
      <maxWeakCount>2</maxWeakCount>
      <stageThreshold>-2.3437827825546265e-02</stageThreshold>
      <weakClassifiers>
        <_>
          <internalNodes>
            0 -1 7 -196611 -131075 -1 -1 -17235989 -104595457 -1
            -3170305</internalNodes>
          <leafValues>
            -9.6812748908996582e-01 9.7321426868438721e-01</leafValues></_>
        <_>
          <internalNodes>
            0 -1 9 534712575 -1182314361 -1048493935 -553299839
            -2012575601 -276249969 1234864795 -3155285</internalNodes>
          <leafValues>
            -9.8862493038177490e-01 9.4468969106674194e-01</leafValues></_></weakClassifiers></_>
    <!-- stage 1 -->
    <_>
      <maxWeakCount>2</maxWeakCount>
      <stageThreshold>-1.1656329035758972e-01</stageThreshold>
      <weakClassifiers>
        <_>
          <internalNodes>
            0 -1 4 -648810241 -549355311 -1056373481 -581631995
            -662651655 -266043388 -2079815169 -44441397</internalNodes>
          <leafValues>
            -9.4736844301223755e-01 9.1666668653488159e-01</leafValues></_>
        <_>
          <internalNodes>
            0 -1 2 -728631813 -250507117 1358958615 -720301615
            -1073695559 -192298848 -2136946471 -70004541</internalNodes>
          <leafValues>
            -9.8889791965484619e-01 8.3080512285232544e-01</leafValues></_></weakClassifiers></_>
    <!-- stage 2 -->
    <_>
      <maxWeakCount>1</maxWeakCount>
      <stageThreshold>8.4362137317657471e-01</stageThreshold>
      <weakClassifiers>
        <_>
          <internalNodes>
            0 -1 10 -646324745 -179235677 335646941 -543575781
            -1844934149 -549352978 -1970361861 1872724395</internalNodes>
          <leafValues>
            -9.9137932062149048e-01 8.4362137317657471e-01</leafValues></_></weakClassifiers></_>
    <!-- stage 3 -->
    <_>
      <maxWeakCount>2</maxWeakCount>
      <stageThreshold>-1.9241814315319061e-01</stageThreshold>
      <weakClassifiers>
        <_>
          <internalNodes>
            0 -1 6 -757741345 -645070497 -1072590625 -536115 -1060920641
            -68779814 -401956693 2129644479</internalNodes>
          <leafValues>
            -9.6559137105941772e-01 8.2268041372299194e-01</leafValues></_>
        <_>
          <internalNodes>
            0 -1 11 -184746273 -789573544 -201080565 -103028501
            -65540065 -69197822 -851197301 -72619845</internalNodes>
          <leafValues>
            -9.6822577714920044e-01 7.7317327260971069e-01</leafValues></_></weakClassifiers></_>
    <!-- stage 4 -->
    <_>
      <maxWeakCount>2</maxWeakCount>
      <stageThreshold>-1.6555632650852203e-01</stageThreshold>
      <weakClassifiers>
        <_>
          <internalNodes>
            0 -1 1 -39985157 -608937536 -245733921 -570489635 -661067365
            -309853814 -1379696245 -71312997</internalNodes>
          <leafValues>
            -9.3534481525421143e-01 7.9012346267700195e-01</leafValues></_>
        <_>
          <internalNodes>
            0 -1 3 -105259009 -351953999 -1072592309 -1089272749
            -83834801 -338984925 -1458968341 2145880827</internalNodes>
          <leafValues>
            -9.2708170413970947e-01 7.6978850364685059e-01</leafValues></_></weakClassifiers></_>
    <!-- stage 5 -->
    <_>
      <maxWeakCount>2</maxWeakCount>
      <stageThreshold>-2.2891134023666382e-01</stageThreshold>
      <weakClassifiers>
        <_>
          <internalNodes>
            0 -1 13 -339245073 -2088188797 16875533 -41219405 -901665585
            -624230013 -1979086165 -3671905</internalNodes>
          <leafValues>
            -9.5238095521926880e-01 7.9918032884597778e-01</leafValues></_>
        <_>
          <internalNodes>
            0 -1 0 -773860897 -721321705 -1050637410 -716787444
            -1065103125 -1467146081 -670848600 -1123348</internalNodes>
          <leafValues>
            -9.9273979663848877e-01 7.2346961498260498e-01</leafValues></_></weakClassifiers></_>
    <!-- stage 6 -->
    <_>
      <maxWeakCount>2</maxWeakCount>
      <stageThreshold>-1.0704581439495087e-01</stageThreshold>
      <weakClassifiers>
        <_>
          <internalNodes>
            0 -1 15 -555751969 -791159869 -855388129 -568724089
            -1873810041 -649868952 -241978673 2077220835</internalNodes>
          <leafValues>
            -9.5594716072082520e-01 7.7419352531433105e-01</leafValues></_>
        <_>
          <internalNodes>
            0 -1 8 -15472897 -552350561 -1191112729 -283008845
            -264122181 -1627062246 -250222773 -68951154</internalNodes>
          <leafValues>
            -8.8123935461044312e-01 8.7070101499557495e-01</leafValues></_></weakClassifiers></_>
    <!-- stage 7 -->
    <_>
      <maxWeakCount>2</maxWeakCount>
      <stageThreshold>-1.8315300345420837e-01</stageThreshold>
      <weakClassifiers>
        <_>
          <internalNodes>
            0 -1 14 -709364225 -48791160 285312183 -3066127 -1023294496
            -125247473 -645811829 2145099771</internalNodes>
          <leafValues>
            -9.6330273151397705e-01 7.1984434127807617e-01</leafValues></_>
        <_>
          <internalNodes>
            0 -1 16 -849402561 -820172909 -1996385385 -1043606253
            18589661 -2035646464 -257965876 -336608822</internalNodes>
          <leafValues>
            -9.0299737453460693e-01 7.9926043748855591e-01</leafValues></_></weakClassifiers></_>
    <!-- stage 8 -->
    <_>
      <maxWeakCount>2</maxWeakCount>
      <stageThreshold>-6.4685605466365814e-02</stageThreshold>
      <weakClassifiers>
        <_>
          <internalNodes>
            0 -1 12 -783288573 -86826991 -2055122685 -250970112
            -1576431593 -864450543 -373061865 -70532601</internalNodes>
          <leafValues>
            -8.6447638273239136e-01 8.0129587650299072e-01</leafValues></_>
        <_>
          <internalNodes>
            0 -1 5 -2261505 -212509801 -628696617 -541877037 -1331308546
            -1610571477 -320623701 -218922241</internalNodes>
          <leafValues>
            -8.6598151922225952e-01 8.1494694948196411e-01</leafValues></_></weakClassifiers></_></stages>
  <features>
    <_>
      <rect>
        0 12 8 3</rect></_>
    <_>
      <rect>
        4 7 5 4</rect></_>
    <_>
      <rect>
        4 9 5 2</rect></_>
    <_>
      <rect>
        5 1 5 2</rect></_>
    <_>
      <rect>
        5 9 5 3</rect></_>
    <_>
      <rect>
        5 10 5 2</rect></_>
    <_>
      <rect>
        6 0 2 1</rect></_>
    <_>
      <rect>
        6 5 4 6</rect></_>
    <_>
      <rect>
        6 9 3 2</rect></_>
    <_>
      <rect>
        7 0 4 5</rect></_>
    <_>
      <rect>
        7 1 3 1</rect></_>
    <_>
      <rect>
        7 8 4 3</rect></_>
    <_>
      <rect>
        8 10 1 1</rect></_>
    <_>
      <rect>
        9 10 2 1</rect></_>
    <_>
      <rect>
        10 21 2 1</rect></_>
    <_>
      <rect>
        11 0 2 2</rect></_>
    <_>
      <rect>
        11 10 1 1</rect></_></features></cascade>
</opencv_storage>
