<?xml version="1.0"?>
<opencv_storage>
<stage9>
  <maxWeakCount>5</maxWeakCount>
  <stageThreshold>-7.0628345012664795e-01</stageThreshold>
  <weakClassifiers>
    <_>
      <internalNodes>
        0 -1 316 3.5134367644786835e-02</internalNodes>
      <leafValues>
        -6.2331837415695190e-01 4.5238095521926880e-01</leafValues></_>
    <_>
      <internalNodes>
        0 -1 108 7.1258305979426950e-05</internalNodes>
      <leafValues>
        7.0816785097122192e-01 -3.6848747730255127e-01</leafValues></_>
    <_>
      <internalNodes>
        0 -1 135 7.6870769262313843e-03</internalNodes>
      <leafValues>
        -9.0510690212249756e-01 2.4972563982009888e-01</leafValues></_>
    <_>
      <internalNodes>
        0 -1 124 1.0637975356075913e-04</internalNodes>
      <leafValues>
        6.8134069442749023e-01 -3.1581252813339233e-01</leafValues></_>
    <_>
      <internalNodes>
        0 -1 206 2.8299793601036072e-02</internalNodes>
      <leafValues>
        -5.9843963384628296e-01 4.3074247241020203e-01</leafValues></_></weakClassifiers></stage9>
</opencv_storage>
