<?xml version="1.0"?>
<opencv_storage>
<stage12>
  <maxWeakCount>8</maxWeakCount>
  <stageThreshold>-8.3535766601562500e-01</stageThreshold>
  <weakClassifiers>
    <_>
      <internalNodes>
        0 -1 118 6.3257545232772827e-02</internalNodes>
      <leafValues>
        -2.4076433479785919e-01 8.4242421388626099e-01</leafValues></_>
    <_>
      <internalNodes>
        0 -1 10 4.7576162614859641e-05</internalNodes>
      <leafValues>
        7.0582520961761475e-01 -3.0243012309074402e-01</leafValues></_>
    <_>
      <internalNodes>
        0 -1 204 3.7488114088773727e-02</internalNodes>
      <leafValues>
        -5.6768542528152466e-01 3.3555471897125244e-01</leafValues></_>
    <_>
      <internalNodes>
        0 -1 77 1.7942856997251511e-02</internalNodes>
      <leafValues>
        -6.2798905372619629e-01 2.7548524737358093e-01</leafValues></_>
    <_>
      <internalNodes>
        0 -1 208 3.3954001963138580e-02</internalNodes>
      <leafValues>
        -5.1956343650817871e-01 3.5559409856796265e-01</leafValues></_>
    <_>
      <internalNodes>
        0 -1 306 2.6742671616375446e-03</internalNodes>
      <leafValues>
        5.2945142984390259e-01 -4.3098530173301697e-01</leafValues></_>
    <_>
      <internalNodes>
        0 -1 6 6.5535539761185646e-05</internalNodes>
      <leafValues>
        6.6915649175643921e-01 -2.2644951939582825e-01</leafValues></_>
    <_>
      <internalNodes>
        0 -1 148 2.4602241814136505e-02</internalNodes>
      <leafValues>
        -7.8944474458694458e-01 3.0211177468299866e-01</leafValues></_></weakClassifiers></stage12>
</opencv_storage>
